7,7,7,30,30,30,30,1
0.000000000000000000e+00,0.000000000000000000e+00,0.000000000000000000e+00,0.000000000000000000e+00,0.000000000000000000e+00,0.000000000000000000e+00,0.000000000000000000e+00,0.000000000000000000e+00,0.000000000000000000e+00,0.000000000000000000e+00,0.000000000000000000e+00,0.000000000000000000e+00,0.000000000000000000e+00,0.000000000000000000e+00,0.000000000000000000e+00,0.000000000000000000e+00,0.000000000000000000e+00,0.000000000000000000e+00,0.000000000000000000e+00,0.000000000000000000e+00,0.000000000000000000e+00,0.000000000000000000e+00,0.000000000000000000e+00,0.000000000000000000e+00,0.000000000000000000e+00,0.000000000000000000e+00,0.000000000000000000e+00,0.000000000000000000e+00,0.000000000000000000e+00,0.000000000000000000e+00,0.000000000000000000e+00,0.000000000000000000e+00,0.000000000000000000e+00,0.000000000000000000e+00,0.000000000000000000e+00,0.000000000000000000e+00,0.000000000000000000e+00,0.000000000000000000e+00,0.000000000000000000e+00,0.000000000000000000e+00,0.000000000000000000e+00,0.000000000000000000e+00,0.000000000000000000e+00,0.000000000000000000e+00,0.000000000000000000e+00,0.000000000000000000e+00,0.000000000000000000e+00,0.000000000000000000e+00,0.000000000000000000e+00,-2.154738612800512154e+00,-1.669285246189555316e+00,-7.895482787719478868e-01,-1.163635649965433450e+00,-2.217695907558212998e+00,-7.426967247475113609e-01,-1.778434860913276516e+00,-2.116468424871402298e+00,-1.351982344559714555e+00,-1.175960861091363885e+00,-1.586613984611752182e+00,-5.664775085089611695e-01,-4.173634144368985943e+00,-1.946365631085846148e+00,-1.049824203992965499e+00,-7.444008231339015458e-01,-1.113220477955358945e+00,-3.473652166386959284e+00,-7.584803478258848042e-01,-1.309568981690818923e+00,-3.989159860854097683e+00,-2.412227684886409484e+00,-8.952013399654752401e-01,-9.257378821779288502e-01,-1.264717438674907601e+00,-7.978361363337895806e-01,-1.296910044291444519e+00,-9.364557265773996164e-01,-1.575306561653349258e+00,-8.788289099934143422e-01,2.105399572398064745e+00,1.410269963304885188e+00,8.127966845336989099e-01,8.739462480442541370e-01,1.831194218477326219e+00,9.608443502894902233e-01,1.393533620892997815e+00,2.248008771474347967e+00,9.592740415842148094e-01,1.070776410364450593e+00,1.868727696464262733e+00,5.114066578435769728e-01,4.188943735052632178e+00,1.362338973424026323e+00,1.077261681948949557e+00,7.898813300239760915e-01,1.016798247209810713e+00,3.375914117052627450e+00,1.080707412246977528e+00,1.406477674577217396e+00,4.206114374542635481e+00,2.283885863921466086e+00,1.448958563614137329e+00,8.957729539199094093e-01,1.005619705598621350e+00,9.147708886853151977e-01,1.184483480215164919e+00,9.492810406466406503e-01,1.229159117837214099e+00,6.608505532659236792e-01,2.078137377077112102e+00,1.238862423192434115e+00,8.644827465057338678e-01,7.628559181719771765e-01,1.877100060395753500e+00,8.965759803625580338e-01,1.447470725303755978e+00,2.113788540036785513e+00,9.319557802962045168e-01,9.195436683535460620e-01,2.028023905430344609e+00,5.195707125326625153e-01,4.261014763330183364e+00,1.502959265181554871e+00,1.095980291731662115e+00,6.268416211178727826e-01,1.035498147268375080e+00,3.373660108795598855e+00,1.075727232453294269e+00,1.343223322546940324e+00,4.140993105361131299e+00,2.277601685351092531e+00,1.210324348309414599e+00,1.048220629482508937e+00,1.097983825486192666e+00,9.416442221728902329e-01,1.150953702162839987e+00,9.081367656687012735e-01,1.257466939714954934e+00,8.376833832457537543e-01,1.246242373767910028e+00,-5.940249756207639509e-01,5.402119714442378262e-01,-5.464357311556964358e-01,-1.259271692596525050e+00,-1.421073225234548328e-02,-6.648326376891933176e-01,-2.027971483010372111e+00,2.053445187457408894e-01,-1.037480258647244913e+00,-1.082245264319199096e+00,1.699013793248947413e-01,6.784876484530384388e-01,-1.181892616072039548e+00,-1.907525923668958456e-01,5.663751994117392774e-02,-6.893309647161890430e-01,-2.189577017464926723e+00,-2.562294481261741530e-01,1.733274699121412521e+00,2.372080375366621488e-02,-4.184467289931613543e+00,-5.075421053420899886e-01,-5.044752614662937340e-01,-2.971461356792009512e-01,1.295108553626728685e-02,-1.041406531595588714e+00,-5.099622146429341196e-01,-6.922233077751844821e-01,-1.071209918066886591e-01,6.343354210706739771e-01,-4.272918571908202456e-01,9.103942722307734048e-01,-6.472371158034794236e-01,-1.265028665220148563e+00,-1.186917909527370751e-01,-8.044217409666947205e-01,-1.130364594516404919e+00,-3.586356493189236661e-01,-5.306749307501854585e-01,-1.651448054105476126e+00,3.725942708527401129e-03,5.370188156489459352e-01,-1.030870364563365893e+00,-2.180791080451599251e-01,1.963901928666632879e-01,-5.994386583349863296e-01,-3.079659127136792574e+00,-3.766503313357980054e-01,-2.634569253999305971e-01,-1.931543632392908674e-02,2.096626881691503907e+00,-4.001001507785740263e-01,-3.582091701307598686e-01,-2.318562063525395622e-01,-1.229384396334683716e-01,-9.129820827392364224e-01,-6.088329597864045040e-01,-9.685662646781360019e-01,-7.371273349066817526e-02,-1.850492866493840038e+00,1.243584799691699994e+00,-1.031500836003461874e+00,-5.715690404172260597e-02,4.871607728622361355e-01,-2.887754601820319289e-01,9.659212824652255724e-01,4.612447822307772505e-01,-3.097979536236403764e-01,-2.898272794429355148e-01,5.193408670114882941e-01,-2.200800605034785473e+00,-4.842057041575576481e-01,9.928292474028443948e-01,5.516172575030243719e-01,-8.205909132712756182e-02,-1.118225662934973497e-01,-1.899129341766720103e+00,-6.577593826928942490e-03,-8.134004728018855435e-01,2.158893267296102536e+00,-8.043116732946409275e-01,-5.724856610140722779e-01,-2.526499292233007621e-01,5.479481111166250029e-01,-3.223711603252051305e-01,4.732702052039655660e-02,9.780185392926407650e-02,5.595619628918712118e-01,-3.684709292432849503e-01,4.895994195924717740e-01,-3.962682227384014544e-01,8.125743199477279965e-01,-7.520910078949056832e-01,-1.133254551121140707e+00,-1.167365174178311704e-01,-6.710776084076591763e-01,-1.055916776411954139e+00,-3.405750263388179211e-01,-5.250287953774234184e-01,-1.708198715581458194e+00,-5.280023682825048942e-02,5.501143900741585213e-01,-8.640506273546861848e-01,-1.742922209897110053e-01,1.704634217823126907e-01,-6.890105954867440374e-01,-3.182640292412724392e+00,-5.300396068821415785e-01,-2.626827960386256544e-01,-1.702974214206552928e-01,2.181517930626560631e+00,-4.151048850566207982e-01,-5.421293199949646091e-01,-4.336425789740658843e-01,-2.873179102295717047e-01,-7.634420939465267342e-01,-7.290983282509311270e-01,-1.014438418663610175e+00,-1.000943892826013093e-01,-6.780229803795363441e-01,-8.816612818002796947e-01,-8.264138311699539274e-01,-4.280218476235216341e-01,-1.014849745341938947e+00,-9.193499978865744826e-02,-7.289075924196027900e-01,7.825358025304000875e-02,-8.603164981853281823e-01,-1.417443120782946320e+00,-3.163198192363315120e-01,-1.570124718878100345e-01,-9.802095277826122777e-01,-6.582699675670328210e-01,1.966697615016417197e-02,-8.869087044865772151e-01,-9.230460349664478814e-01,-9.525629255856216115e-01,-4.700465339012528387e-01,-8.884148536684621789e-02,-4.302334266295049225e-01,-1.271676249211937781e+00,-4.067801508380507469e-01,-7.937088131635890997e-01,-1.047699371787068179e+00,-1.014108824377905026e-02,-5.031660177925725286e-01,-7.581287103067214650e-01,-1.085065402414663593e-01,-1.069512877103743653e+00,-5.961967755416707204e-01,-6.414687171800377286e-01,1.908939554371142655e-01,1.440737015301516710e-01,-3.784840605909109978e-01,2.046743346345382686e-01,-6.383692650283829817e-01,-3.197887741995061872e-01,-1.633613141152742421e-01,8.278129750669449560e-01,-9.087967969032771307e-03,2.502580188984162568e-01,-3.096353255214244760e-01,2.225591464492614469e-01,-4.659049313833391048e-01,2.646908874485719987e-01,1.069721589783462212e-01,-3.515695341599736623e-01,-6.502385997550453878e-01,-1.050416406286976301e+00,1.935926786102883934e-01,-3.405981129302061983e-01,-6.907410440562498088e-01,-7.928696192509014917e-01,3.304993400498439926e-01,-1.414698316066192119e+00,-1.162287847577053945e+00,-8.063523064187978484e-01,8.502949899205290984e-01,-7.522668975919692969e-01,-1.522209611608988933e+00,-1.368691140134578044e+00,-9.992825639010088912e-01,-6.627657866971795597e-01,-8.807066830720172712e-01,-5.052551123301222136e-01,-1.496358147518726200e+00,-1.424948628778358595e-01,-8.278168586926726302e-01,-7.200000695743893342e-01,-4.399886521141024853e-01,-3.174287009262664050e-01,-1.081060829593147421e+00,-9.273323245832203465e-01,9.926751028899731544e-02,-9.897503595296565093e-01,-9.792026573484864382e-01,-8.557208629155028667e-01,-5.349548483927102360e-01,6.938796191610226982e-01,-6.941797638315830854e-01,-9.218694930457118630e-01,-7.031771722759780907e-01,-1.681512077147407691e+00,-1.055279110059345271e+00,-2.158560262050268352e-01,-4.562809460002519302e-01,-1.461767324455246042e+00,-1.675801917621727311e-01,-1.380500278623530086e+00,-1.530726625854929024e-01,2.742452560977668916e-02,-1.853711298660453421e-01,-5.342075698533858136e-02,-6.637799065687572941e-01,1.665883708846935818e-01,-1.690580404246063984e-01,-4.094833583447081149e-01,-2.508823476818232701e-01,-5.652165593080901163e-01,-1.209560657653670213e-01,-1.328646020800117455e-01,-7.019889244097077263e-01,-9.224148115685461280e-02,-2.685401287705930368e-02,-1.400681117736255477e-01,-2.772254047789100562e-01,-6.976942630375106980e-01,-5.582164509659691687e-01,-9.778755454937620994e-02,1.815136084731444957e-02,-9.413494770574007964e-01,1.953830406325134106e-01,-1.699638561006282245e-01,-3.292048906429910216e-01,-4.524630479263647698e-01,-6.936182029681944305e-01,-1.477574002754636906e-01,4.608373254587312395e-01,-7.242149952144824043e-01,-1.404968446582746333e+00,-1.180955847121777147e+00,-2.951655597119609009e-01,-6.714764097837300216e-02,-4.671627445255241984e-01,-5.171203936193045081e-01,-1.178155978920543800e+00,-9.454058512091333411e-01,-2.530759512869322214e-01,2.812394805926857200e-01,-2.397278560717049367e-01,-5.701748671483517494e-01,-3.840235285179931513e-01,-4.281432572863114183e-01,-7.395089854155397768e-01,-6.648721445061850366e-01,-3.350486233896218247e-01,-6.881910265152900719e-01,-8.116058710191995651e-01,-2.353759955379029212e-01,-1.526107593227459536e-01,-7.571570174575655843e-01,-5.250122978798136275e-01,-9.701103327986484448e-01,-6.250924955121558435e-01,-9.096407054091151245e-01,-8.127583390249585316e-01,-1.436593052093417588e+00,9.622754781544962110e-01,-9.265500878154427911e-01,-7.790632232258505319e-01,-6.418747712428384267e-01,-5.458641439925601135e-01,-2.431432899594145880e-01,-9.448376944346941197e-01,-4.692288588368163232e-02,-6.514760776857169144e-01,8.524950465531479227e-02,-7.381513430338854098e-01,-5.776135291962258833e-01,-3.350725713579885690e-01,-3.805400580521248188e-02,-1.007914088032026312e+00,-1.230103491417544048e-01,2.329114718822500596e-01,-3.183949773167953912e-01,-6.664921056113221054e-01,-8.448150624703205658e-01,-6.361716588988811649e-01,-1.961367686001578847e-01,-4.261462821962219705e-01,-8.209939256028735421e-01,-2.621808297040822411e-01,-8.996504682387470586e-01,-5.800872421291940473e-01,-5.918775343569443459e-01,-8.444873172995041033e-01,-8.398552790534662416e-01,8.831393475477858357e-02,-1.258111509783930160e+00,-6.062685061894453886e-01,-7.167911725084837871e-01,-2.355994172887031501e-01,-2.762519823362825644e-01,-5.669862052815584086e-01,-2.798057393370925183e-01,-6.701132708157763185e-01,-2.794630451707164620e-01,-4.320709762546710575e-01,7.085423155365400127e-01,-2.776464645189091751e-01,-1.824235213410918544e-01,-6.219437276281244431e-01,-6.668708637850843945e-02,-7.843199279077273101e-01,-2.338808867201224440e-01,-3.855780896563695825e-01,-8.194762886846705952e-01,-8.817386781076186342e-01,-1.193880963360187897e+00,-1.167131070976102220e-01,-5.628401861948325591e-01,-5.506526379956656614e-01,-8.967668046252208480e-01,-3.518466894514415966e-01,-1.505512816555213407e+00,-1.171932975399340160e+00,-9.035339772496968624e-01,9.552595395858997085e-01,-9.741111002627440563e-01,-1.514104620034618653e+00,-1.198471705767018447e+00,4.529236782585604471e-01,3.080879838648957758e-01,1.269582427250086076e-01,-6.260134831378282028e-02,-1.264893975536550030e+00,-2.226499849167477230e+00,4.036985349981160320e-01,4.495514730475022591e-01,1.003116977115656172e-01,-2.006931960587759745e-01,7.882474442613833510e-02,4.014016315840688853e-01,-6.554026210547114761e-01,1.186772687547100885e-01,3.068210192781841705e-01,-2.918981131082963865e-01,-2.222143433562880355e-01,7.178475617728171665e-01,2.687128878995779235e-01,-1.062405229613830882e-01,-4.221757877723648633e-01,-7.813556042934711732e-01,1.642020285231279297e-01,-3.993347458604825650e-01,-2.262982130368499101e-01,-1.124573712497938027e+00,1.502741398915331095e+00,-5.806729113421460475e-01,2.014310773182401981e-01,2.702577911758571316e-01,-3.646484787986267739e-01,-6.860220362612423628e-02,-8.658532505686257208e-01,2.216819339041898318e-01,1.705350346509704462e-01,4.094774869850766746e-03,-2.370373581340849412e-01,-6.453063081992022054e-01,-8.763846867192519319e-02,5.705096341345731320e-02,-6.364726348091516162e-01,-2.169094528128133192e-01,6.692270376926445774e-02,-3.075131001089093652e-01,-4.690568107071567128e-01,-6.956364053285614135e-01,-5.821999846759638997e-01,-2.641125326506756910e-01,6.152355046200200326e-04,-8.824279834521315813e-01,5.425055311879254383e-01,1.236411298257824032e-01,-6.908053787685736191e-01,-9.811757528956956131e-02,-3.729717295392432908e-01,3.012845187366838262e-01,3.467620772278340313e-01,-9.110995250946746227e-01,-1.915478441937481791e-01,-1.225904246405539327e-01,1.009425420582514138e-01,1.416371130380453536e-01,-4.852857770072352417e-01,3.009166558299100069e-01,-2.005254901563337244e-01,-4.021153733591984469e-01,-1.036710330330788826e-01,-4.341884824616802918e-01,7.026923744283197770e-02,-1.761198505956725058e-02,-5.687207746771434369e-01,1.851874130996769841e-01,-1.239974517754994510e-01,-1.388871322956664600e-01,-1.400164836173138638e-01,-4.625986178355508405e-01,-6.375279452770251654e-01,1.321401913938356487e-01,-1.079840872642003936e-02,-6.718506773197875370e-01,5.210860098467449131e-01,-2.103784182387832824e-01,-3.848929311155979138e-01,-3.147452141439517903e-01,-4.281817913418754507e-01,3.892693462679850530e-02,7.694542175040085530e-01,-7.448321862024587237e-01,-1.127291015909591909e+00,-7.685324402548296963e-01,6.771487174947590226e-01,2.390397326832181257e-01,-6.409836475558512714e-02,-2.778722410424152092e-02,-7.839617502957889617e-01,-1.394004325639776498e+00,3.283927365669778720e-01,5.310693897121401830e-02,2.351545389588265700e-01,-1.344725204478451064e-01,-5.571500552436947640e-02,4.947656649112004423e-01,-3.651864401673304839e-01,3.162740579038674782e-01,2.776380209388936149e-01,-2.792511118991623520e-01,-2.936655185744236896e-01,1.713078410899372961e-01,2.865076626608668020e-01,-4.709210796406514965e-01,-5.508305043418058183e-02,-2.980308386689776712e-01,2.227820419513627248e-01,-2.424653717552082421e-01,-3.036152014522964238e-01,-6.789362477968838849e-01,1.234545545022546431e+00,-3.895110133022902099e-01,-4.554631553765991492e-01,-5.846120126834852826e-01,6.539657433576320615e-03,4.105510565799849049e-02,-1.956500223052360377e-01,5.237149583171465395e-01,-6.454049858932304762e-01,-8.894383810261611290e-01,1.250517457666093790e-01,-2.097054052860072293e-01,7.831167026563141953e-02,3.601825251487126289e-01,-4.332377922071227183e-01,-7.466884701368442512e-02,-3.329169623864875471e-01,-1.278980201264897920e-01,-1.241098142132835286e-01,-1.807102499176541643e-01,-1.063776096797558642e-02,-6.027850758482936749e-02,1.687908912794808813e-01,-2.502587313724201623e-01,8.592810807668442852e-01,-5.072260611226629967e-01,-4.186535474383014654e-01,1.128009507715054482e+00,4.028785340746768306e-01,-1.760160625330462469e-01,7.060633776410362161e-01,-5.239992836337366011e-01,-4.928784244282837790e-01,-3.365055141742953060e-01,-3.068349569440875335e+00,-1.961030292294378974e+00,-2.007478824980655219e+00,-2.507434865557954140e+00,-4.425896601580055489e-01,-1.531876166237621906e+00,-2.493907027298742474e+00,9.474700263314065340e-01,-2.014918646082198617e+00,-1.587410789380935938e+00,-1.486136007605749931e+00,-4.324656311229008843e+00,-2.888636587223250896e+00,-4.081831758230362261e+00,-2.775787896980840497e+00,-2.692237941481636643e+00,-1.688439729309772153e+00,-1.578039616856298233e-01,-2.630274812977281051e+00,-2.371835325277063866e+00,-3.597226279193285858e+00,-4.564227240185734780e-01,-3.670723640031674950e+00,-2.191708972253891829e+00,-1.777109064545308037e+00,-1.039318451680351529e+00,-6.286818492499244293e-01,-1.883256262763548516e+00,-6.453965104794807672e-01,-8.079425179125268031e-01,2.273367928271586291e-01,3.533711434728388223e-01,-2.457685816742071622e-02,6.194748894375353698e-01,-7.462227046950082876e-01,2.412580046695232405e-01,-2.657470945386292138e-02,-7.938722379529979944e-01,5.186658609934853281e-01,6.604621063882001319e-01,1.706011019745227730e-01,6.883774040853374299e-02,6.555844187804804601e-01,1.184784674603662630e-01,1.988120718137777743e-01,-2.059643267715576820e-01,-7.681025067765227810e-02,-7.511069914004604442e-01,4.220653721611614673e-01,-2.429314288199936334e-01,-3.235481808323575903e-01,-7.052083032035162402e-01,1.797128972699381100e-01,-1.396797537700586123e+00,-9.174227134780853499e-01,-9.847109422578568250e-01,4.341822106860597219e-01,-2.945636862539967593e-01,-5.467604631177216401e-01,-5.741993699503512572e-01,-3.825541272253671354e-01,-3.266098674690460779e-01,-6.356092647733109224e-01,-1.567351353918961798e-01,-5.928068651824561774e-01,3.376460514242021205e-01,-5.709569561914609181e-01,2.939071752329479592e-01,-2.429828772349908184e-01,-1.256090124663372110e-01,-6.103583286192177937e-01,-9.077271626022416495e-02,-5.967539763718213153e-02,-3.342016627534502571e-02,-4.030987480292837488e-01,-7.014542828625591753e-01,-1.003841211168676750e+00,-1.058499206125246506e+00,-1.340000358444309869e-01,-6.131672232461991001e-01,-5.554746786462881891e-01,-8.995357864579357488e-01,-1.594497231574295570e-01,-1.374663789347511544e+00,-1.249690774099160739e+00,-7.916408038885798248e-01,7.343090803770111474e-01,-1.347668292415183933e+00,-9.302752001634735368e-01,-1.062282163808378810e+00,-5.478919313423965542e-01,-4.210643675998431146e-01,-7.207881637323299007e-01,-2.958007022920056128e-01,-1.003506179921413111e+00,-4.539974892540340687e-03,-7.317759069621396772e-01,-2.143276159597014563e-01,-4.027326529049395920e-01,-2.224180167164689637e-01,-9.400310804078328974e-01,-3.784203020275898610e-01,-4.057807621234343909e-02,-4.337020044017161902e-01,-7.267556156566136183e-01,-8.657136956701221298e-01,-8.648118767483352620e-01,-7.865390912033176640e-02,-4.225131464080307819e-01,-6.408363642091915446e-01,-3.198438866621939325e-01,-1.249807229741604075e+00,-4.849404254351907251e-01,-8.464961944149822504e-01,-9.135675712935322768e-01,-1.040111359623691722e+00,8.972108069062395552e-02,-1.291081996998841630e+00,-9.279946505265813939e-02,1.623887409064974025e-03,-1.531387140115799683e-01,1.115340991930201114e-01,-6.662753590926489000e-01,2.850978815947859402e-01,-1.336320029135142085e-01,-2.906602670379875852e-01,-1.533657587548902523e-01,-4.993176828635296771e-01,1.158151191725842119e-02,-1.880040486020211066e-02,-6.085241570785523413e-01,-2.132553564109465009e-03,-1.718983521478561760e-01,2.478045981768983285e-04,-2.910087976562200640e-01,-6.089955461465493824e-01,-6.749435136238405297e-01,-1.594336310978363147e-01,-6.023827284437890950e-02,-6.200677920658593800e-01,2.103722449178602460e-01,-2.751322940345487522e-01,-2.885221197727865228e-01,-5.285295066365121031e-01,-4.886833942382354246e-01,-3.929098453424042896e-03,7.413310387986277172e-01,-8.911816868765203292e-01,4.864690045370913540e-01,3.613133833772103620e-01,-4.732853603919021657e-01,9.499647464855283108e-01,-1.036126873908586044e-01,7.439426466628880075e-01,3.733948376808318703e-01,-5.016610406270167744e+00,-5.098088054881740883e-01,1.566199593272716850e+00,8.855330086124115763e-01,4.518783026924927393e-01,2.726188882058949714e-01,-7.324089320252304969e-01,-2.030611561524510389e+00,-7.373208668347309702e-01,-3.413877808430694216e-01,-7.164185515781525959e-01,-4.841050673313978536e-01,9.275664673585605202e-01,9.262581773468026025e-01,-4.115758063834295544e-01,1.804728977844105353e+00,1.081018548242372451e-01,-4.363613434934920376e-01,-2.175771082877604012e+00,-1.463148031319748466e+00,5.290776246126976945e-01,1.016821171241130362e+00,-4.507600390743456975e-01,-2.166922702348342833e-01,-1.690400792775504923e-01,-2.915404339818285576e-02,-4.304357638696908878e-02,-7.925898348548242600e-01,1.418077910588299217e-03,-2.315012248375299397e-01,-2.471601656683473577e-02,-3.877050556486649202e-01,-6.145473809582693292e-01,-8.544208864835055317e-02,-7.234517498054997275e-02,-6.672904663301097994e-01,-2.738876308469959456e-02,2.429301736845748960e-01,7.601531399581226700e-02,-3.317964334473685883e-01,-7.177264172600508196e-01,-7.163910717242618631e-01,-3.497505503757433187e-01,-1.549419682883741989e-01,-6.842669629703993506e-01,1.425373924238224344e-01,-3.840199704621049537e-01,-1.673488228187955951e-01,-5.145989253378503436e-01,-6.383921098224507595e-01,-2.031104977784938537e-01,6.339291952441135081e-01,-1.072533071285046269e+00,-1.038373994213205087e+00,-9.516473599027762686e-01,-4.833391288248915507e-01,-2.870723636291246939e-01,-9.743706861649044093e-01,-2.231318972426797054e-01,-9.893385058272333721e-01,-2.670239547577828443e-01,-2.916399187482888733e-01,-9.505149460549550122e-01,-3.248233832051750647e-01,-2.494709276495619410e-01,-9.708498591441562242e-01,-3.504049537911117507e-01,-4.581782861046208577e-01,-2.530342714644647634e-02,-6.832593077002299120e-01,-5.089262018406061072e-01,-1.373646213159331608e-01,4.314859343302202693e-02,-2.664061269898024276e-01,-9.921634177075512318e-01,-3.966958969778101030e-01,-1.041861465140505372e+00,-5.450676203333639780e-01,5.400962103466763198e-01,9.918825760208822839e-02,-1.113795646121752414e+00,-4.678913875774008690e-02,-1.172571235162800596e+00,-1.982438770433846642e+00,-1.968211701676295000e+00,-9.079044054595774016e-01,6.121675403551747330e-01,-2.004900855547902261e-01,5.373447462002798325e-01,-1.761543757894469042e+00,-1.234514770551685681e+00,-8.120673098206776519e-01,9.785298239441110324e-01,6.738953853804680039e-01,7.911432862401385213e-01,-3.957143527395519667e-01,-9.109876561848245791e-01,4.775085533946654137e-01,-7.127073836856077094e-01,-7.617843420808815269e-01,-4.456187618311180931e-01,-8.335192789022649595e-01,-8.424819636663664069e-01,8.977658583043593987e-01,8.456392074696721106e-02,-2.315006152346435808e+00,-1.483780897059908455e+00,-4.333843571186543620e-01,-1.889008859043418420e+00,-1.473501895416801766e+00,-2.277172330265943234e+00,8.236614097411839586e-01,-6.140302145700208269e-01,-2.145142274482753297e+00,-2.243046187970725747e+00,1.918735054432512965e-01,-7.428713536684815599e-01,-4.868771606675761920e-01,-2.997357161535601500e-01,-2.124828554789849999e+00,-2.746076108144623884e-01,1.082590744214601414e-01,-1.402688205806200683e+00,-1.542867329470219984e-01,5.226939578234069961e-01,-3.772096149320468550e-01,1.484117487330908480e-01,9.321236955478656716e-02,-3.645196501196370509e-01,8.773556551155493877e-02,-4.268409216164683606e-01,-4.643859005533425566e-01,-1.384124472458185817e-01,-9.900275272611590571e-01,-6.232256680076411204e-01,-1.002478746212476235e+00,-1.976768856242093531e+00,-6.935926546768551582e-01,-7.869999487035541641e-01,-5.038745798728095915e-01,-1.960350279400795648e+00,2.034069588206037504e-01,-1.070024985421658581e+00,-7.173703648801850463e-02,-2.199074826470233945e-01,-1.159524502952101327e-01,-3.552284596204641209e-02,-4.217604017610677158e-01,4.408669183465684926e-01,-3.378410668397534566e-01,-2.618981875189091424e-01,-2.309640926918922199e-01,-4.302875707438926223e-01,1.895762670352438561e-01,1.133034187670866645e-02,-3.564663431852635456e-01,-1.692060673966115647e-01,-1.232717416372789976e-01,-2.300953623088612121e-01,-2.106515564573401833e-01,-5.721673209132244198e-01,-3.671687182772703784e-01,-1.229333715979675917e-01,1.488562787291899114e-01,-6.361308606770681440e-01,3.983609966926149326e-01,-1.795537788935048784e-01,-4.601174757177279306e-01,-1.759411247195153457e-03,-3.097843367852920471e-01,-1.766503498065777611e-01,9.024857128959398178e-01,-1.010918234557613760e+00,-3.166940633609531541e-02,-2.811430982824931202e-01,-1.530656441135792856e-01,-1.330724929651899424e-01,-6.557931125377439718e-01,2.588959272202036588e-01,-2.538643225535254233e-01,-7.126878303803060866e-02,-3.345091162624846404e-01,-5.351813055318922485e-01,-1.233044297834351433e-01,-4.225030454564247806e-02,-7.264695928426092575e-01,5.146787198855524992e-02,6.061796121222142592e-02,-1.993804471787551102e-01,-2.083062724602400551e-01,-6.703420852077536241e-01,-5.057022601076932578e-01,-5.692409936096285393e-03,-6.301775759397665322e-02,-5.814500346154161114e-01,2.365381004726627712e-01,-3.618373467609236616e-01,-4.553180969309335024e-01,-3.805577902295444459e-01,-5.797853017479377424e-01,-1.372798734836196133e-01,6.224910470824942532e-01,-8.580591763531408844e-01,-6.447422805781189981e-01,-5.984487827807872806e-01,-3.453115130849723213e-01,-1.937206597258167295e-01,-6.455556044763354206e-01,-9.981079069607419474e-02,-6.567620049918688752e-01,1.691763862680414066e-01,-6.797661053370135376e-01,3.562157332958943989e-01,-7.578923656558025912e-02,-1.523091057376341484e-01,-4.920242368499186947e-01,-2.058609986336402964e-02,-1.578523105089112422e-01,-1.602572803189233064e-01,-4.225989010756744380e-01,-7.587375543380662224e-01,-9.350010053219452999e-01,-9.906937110422510129e-01,9.379652657152955098e-02,-4.940431855546880135e-01,-3.802718725127499089e-01,-8.311375171763484282e-01,1.439784585429577761e-02,-1.376423553261939103e+00,-1.164738220994821605e+00,-6.843783475988906018e-01,5.988401864439107936e-01,-1.072889583968753113e+00,-6.994572425709790764e-01,-5.767811238556909137e-01,-5.548642641842062018e-01,-2.586213189139465185e-01,-7.718018804342596795e-01,-1.818179724717455814e-01,-5.311635644325799488e-01,2.204045567917692905e-01,-6.782588717908454301e-01,-6.210548490419266487e-01,-2.123133571058455904e-01,-2.242983816990618828e-01,-8.746403120081495119e-01,-2.062709500054683287e-01,-3.828125680732525488e-02,-2.461806973856019987e-01,-6.092636498900635411e-01,-9.098073280011881314e-01,-7.481034172432009521e-01,3.808696620341440325e-02,-1.996101246901303417e-01,-9.281764418238899195e-01,-1.075603674433339707e-01,-7.692668756171574529e-01,-6.765913466956948730e-01,-5.130588200201565696e-01,-7.236353727943846126e-01,-6.570456320464093114e-01,2.403421798503497520e-01,-1.162597725911518998e+00,-4.141486051210999664e-01,-2.204515489176245013e-01,9.269883320718488862e-02,2.230278201173786501e-01,-4.949205518979519214e-01,2.261615035899421644e-01,-3.204035430744724966e-01,-8.084206116646485141e-01,-7.052962338551588273e-02,-4.031029428602878051e-01,5.576236481790556448e-02,-1.390490721051629575e-01,-3.284273922748221497e-01,2.502107968088247980e-01,-3.101649796099117951e-01,-3.771862624546928888e-02,-2.369825012237141704e-01,-7.048525755308560070e-01,-7.477744544656983461e-01,-1.190894599175662261e-01,2.916362308579755966e-02,-7.542882167938188553e-01,2.172113814158932732e-01,-1.808771840052163793e-01,-3.624181369545509401e-01,-6.463553407025879327e-01,-6.610325481128521696e-01,-1.570980471133480438e-01,7.986638676485832145e-01,-7.057999707396057643e-01,-1.754598851038155494e-01,-1.591089045313589800e-01,1.350826821216052909e-01,-1.168442609869132093e-01,-5.876432120836789785e-01,9.253529078092637139e-02,-1.838728302742309306e-01,-3.121706782229614063e-01,-1.309719186735398833e-01,-4.865425673779569249e-01,3.566673820650915344e-02,-1.676331479161204813e-02,-7.438823153016425049e-01,1.308925977595866430e-01,1.152080510835422067e-01,9.565965338950334351e-02,-2.456298728698501077e-01,-4.270344459825345940e-01,-4.816176229095764927e-01,-4.218046257112464947e-01,-7.424378247460540481e-02,-5.716649098155173192e-01,1.187175951858476658e-01,-2.290988100467642730e-01,-1.162775096108338568e-02,-6.433663447007843539e-01,-7.595252914830561419e-01,6.906747674082122646e-02,5.700899915490709180e-01,-9.042882839127744932e-01,-7.215363322365058174e-01,-5.788070898330412994e-01,-2.341660103751001462e-02,7.909900845752561305e-02,-4.439616573447673353e-01,-1.207606742979274849e-03,-7.544574427724685117e-01,-5.386535475734512968e-01,-1.180412498065928351e-01,1.425968366786621033e-01,-7.554366565781910070e-02,-1.934846716740053207e-01,-4.032983583653080295e-01,1.938420463820521300e-01,-4.310315974904504466e-01,1.244614609670055688e-01,-3.126620798855569427e-01,-4.763470883585317894e-01,-6.664320195531158175e-01,-7.579350120722553319e-01,2.053813568978261200e-02,-5.152075133702601617e-01,-4.905639032475592187e-01,-4.492032462306723151e-01,3.755391931913284326e-02,-9.387531656550258674e-01,-9.072710395464368416e-01,-9.000633953147321176e-01,7.504300127681761134e-01,-8.166411137998473846e-01,-8.138256363709718277e-01,-6.975127931292349759e-01,-5.623214205189397408e-01,-3.893392883155297191e-01,-8.266376018777880086e-01,-1.765488242683576348e-01,-6.897212554697716991e-01,-7.705708509103115222e-02,-5.081973544965958656e-01,-5.873376703849595426e-01,-2.627482595137181076e-01,-3.368666779446221476e-02,-7.509956839011805441e-01,-4.089337103272033258e-01,1.227403589476597084e-01,-2.811912536965435194e-01,-4.982316741689336026e-01,-7.555005152119469436e-01,-7.917904431978138868e-01,3.102197880547693729e-02,-4.194808196108655851e-01,-8.873211299470888935e-01,9.393619780363106353e-03,-9.371932859778299152e-01,-5.526299418044564593e-01,-5.737860840820149244e-01,-5.992157552497002770e-01,-6.694913540743712144e-01,1.298303499282966178e-01,-1.144706201715802729e+00,-6.546624913772869370e-01,-7.810452809899527393e-01,4.170304602219389034e-01,3.569134297467109196e-01,5.544902055200818802e-01,7.669340259698281814e-01,-6.457125990828950224e-01,-5.604164539160971792e-01,7.186948848178423832e-01,-1.362309124854908182e+00,5.823050318893752131e-01,8.806288984062736747e-01,1.244741295456654323e-01,7.187609986898209069e-01,-3.145451255173356553e-01,5.615939236370229848e-01,4.874908023069007279e-01,2.969631198599846367e-01,5.694529745220685557e-01,8.878771675693025722e-01,8.705807294665750540e-01,5.759187415233916196e-01,-3.004574093872829366e-01,-4.094525084120725911e-01,4.686707069768655254e-01,5.930900947019651648e-01,3.394559685274449734e-01,-4.618122979117869065e-01,-4.037414252988864583e-01,2.336777082089742108e-01
0.000000000000000000e+00,0.000000000000000000e+00,0.000000000000000000e+00,0.000000000000000000e+00,0.000000000000000000e+00,0.000000000000000000e+00,0.000000000000000000e+00,-1.199584455982843245e+00,-6.004877468135904062e-01,-1.007059411828619688e-01,-6.661177241947456862e-01,-5.800819458934046713e-01,-8.454497446589925858e-02,-4.894385281720576297e-01,-4.359868634992558056e-01,-3.888035185285176332e-01,-2.713967987912569435e-01,-4.206216668605926023e-01,2.483235042325107333e-01,-9.092741859225097478e-01,2.693971108592974617e-01,-1.860719681278163729e-01,1.075779146786885881e-01,-3.366812821424334801e-01,3.309696791541132832e+00,-7.856650101047739365e-03,-7.690987749433138010e-01,-1.581312994326721511e-01,-2.043745007963146954e+00,1.161114362002316491e-01,-3.976648795389079449e-01,-3.596778722875477174e-01,-2.033716483589136370e-01,-4.958929316561103695e-01,-4.698635145034728011e-01,-6.965723124954168455e-01,-2.312455168529982397e-01,-7.306857407154996320e-01,-4.747736026783363483e-01,-3.434650564249915883e-01,-4.565004558356671738e-01,-8.437309153103582648e-01,-2.880266104403235161e-01,-5.357872943051777970e-01,-1.965415891813747651e-01,-5.689331461092099751e-01,-3.978389846818747855e-01,-5.956402629750735533e-01,-2.613550056690217560e-01,-9.434054764068214860e-01,-2.013592299807527922e-02,3.866562305507279529e-01,7.310739594617091108e-02,-4.953807528163172713e-01,-5.304478120067717128e-01,-7.480642842907353485e-01,-3.709547884688502717e-01,-3.357110605776841283e-01,-7.165094792785710043e-01,-7.247397422370824294e-02,-6.862821172615253262e-01,-2.653498152176504421e-01,-5.311581445972852755e-01,-6.948597091171032636e-01,-5.233314033568753354e-01,4.180138883049802634e-01,-1.305347354496432466e+00,4.470387849912259293e-02
