7,7,7,20,20,20,20,1
0.000000000000000000e+00,0.000000000000000000e+00,0.000000000000000000e+00,0.000000000000000000e+00,0.000000000000000000e+00,0.000000000000000000e+00,0.000000000000000000e+00,0.000000000000000000e+00,0.000000000000000000e+00,0.000000000000000000e+00,0.000000000000000000e+00,0.000000000000000000e+00,0.000000000000000000e+00,0.000000000000000000e+00,0.000000000000000000e+00,0.000000000000000000e+00,0.000000000000000000e+00,0.000000000000000000e+00,0.000000000000000000e+00,0.000000000000000000e+00,0.000000000000000000e+00,0.000000000000000000e+00,0.000000000000000000e+00,0.000000000000000000e+00,0.000000000000000000e+00,0.000000000000000000e+00,0.000000000000000000e+00,0.000000000000000000e+00,0.000000000000000000e+00,0.000000000000000000e+00,0.000000000000000000e+00,0.000000000000000000e+00,0.000000000000000000e+00,0.000000000000000000e+00,0.000000000000000000e+00,0.000000000000000000e+00,0.000000000000000000e+00,0.000000000000000000e+00,0.000000000000000000e+00,0.000000000000000000e+00,0.000000000000000000e+00,0.000000000000000000e+00,0.000000000000000000e+00,0.000000000000000000e+00,0.000000000000000000e+00,0.000000000000000000e+00,0.000000000000000000e+00,0.000000000000000000e+00,0.000000000000000000e+00,-1.252620335319003297e+00,-1.603532388822621890e-01,-2.199305184768888477e+00,-1.331079417034445544e+00,-1.367008383555656792e+00,-1.942006348355672429e+00,-1.572612638473262603e+00,-1.179824819811794212e+00,-2.157855479969554846e+00,8.982232641740837131e-01,-4.087308999537717646e+00,-1.363158677392672269e+00,-1.126325665552649902e+00,-1.186936856991254174e+00,-1.441864756798720393e+00,-1.786556302436801191e+00,-1.328800230082763711e+00,-2.792858421074171371e+00,-9.388835709474162572e-01,-1.708770488945360766e+00,1.471757388388606147e+00,1.592673626482460358e-01,1.846244729330847045e+00,9.861488121777473026e-01,1.268212312515428986e+00,2.191347080472816344e+00,1.379596341725049191e+00,1.551257388682012239e+00,2.003895998366088005e+00,-9.696143947699173982e-01,4.117842937390322255e+00,1.165143605934574778e+00,8.961727631174382092e-01,1.124333270927139639e+00,1.242296698601413230e+00,1.638027556493603099e+00,9.824458344456648007e-01,2.718575541705237075e+00,8.851130492004209982e-01,2.059514428451365120e+00,1.472772792261676900e+00,1.979433864908202167e-01,2.003532216626085383e+00,7.424413268853067294e-01,1.566395844552872507e+00,2.194444103368096588e+00,1.565349745369109868e+00,1.411084633536136890e+00,1.990710129421327634e+00,-1.041616776817611667e+00,4.149371866192987035e+00,9.887269253847236206e-01,1.214168169661597130e+00,1.127368846974041050e+00,1.087725585452426369e+00,1.615831799391359791e+00,9.157814264235594193e-01,2.823794239707091869e+00,9.723664236371454273e-01,1.675056386470982872e+00,-3.842395895680751905e-01,-1.683038861561132249e+00,-4.847989904938971306e-01,-8.965186034672302240e-01,-7.144256594272248018e-01,-2.435767304860351756e-01,-6.509148733250309515e-01,-1.259459481376414391e+00,5.540292484588760225e-01,-1.134548478961376672e+00,3.345106242807438512e-02,-7.868003524059704601e-01,-4.233193491228354755e-01,-8.578393789184773910e-01,-4.301875252922313653e-01,-1.145102163528410655e+00,-3.459785386591007761e-01,-3.648555607302593984e+00,-3.344750088276745026e-01,-9.495491106284591476e-01,-3.451894184489446848e-01,-1.938682642245280530e+00,-5.493669241531222713e-01,-8.980193729754631926e-01,-7.203841647854238861e-01,-2.516835773179951219e-01,-6.201361240109053430e-01,-1.296608000429439134e+00,4.941837812026650401e-01,-1.138329438258265380e+00,6.022768779324247368e-02,-8.042927426195556340e-01,-4.152169357622109147e-01,-8.548361635556038785e-01,-4.455977368381678905e-01,-1.169764788179497472e+00,-3.492749788380682952e-01,-3.682618220272652287e+00,-2.981969969072580939e-01,-1.001321508319201525e+00,-6.072345193688916815e-02,-1.183544194068336664e+00,3.735020195146842692e+00,-2.466042646593123444e-01,-7.859790905746637524e-01,1.657179713945463817e+00,-2.936879965851339480e-01,-1.122110491996050508e+00,-1.140135949008899141e+00,2.500737834090608569e+00,-1.382539618714383467e+00,-1.803639367395276638e-01,1.821020988209076097e-01,-8.020450492856510127e-01,1.351114151348229653e+00,2.930878945511823375e-01,6.423174360891875656e-01,-5.080330215177892850e-01,2.325570870444239047e-01,1.672550181526091917e+00,3.294208792158540011e-01,-1.325670097245706502e+00,-1.185277450968599045e+00,-4.644163439165685525e-01,-4.363958594277015379e-01,-8.426601706906801104e-01,-2.607068609038768248e+00,-1.286227291911089810e-01,7.005561039924312894e-01,-1.788422211726698352e+00,-1.021294042230134202e+01,-9.570045405550487994e-01,-8.134396494190652138e-01,-9.032249962096872142e-01,-8.716254873864698327e-01,-1.784446388348416290e+00,-6.578360595789493059e-01,2.521082410682937702e-01,-1.784848290577391583e-01,-1.714771941626652252e+00,5.716621971543778269e-01,-1.311018178126283074e-01,-1.259957988815766372e-01,-1.150491060764130824e-01,-1.060216701177923437e-01,-3.556674304423414479e-01,-1.191639654307703744e-01,-5.940264405290390792e-01,-3.688669838330907447e-01,-3.162245859868395015e-01,-2.650961137433283654e-01,-4.986672357735666972e-01,-2.106947428253620747e-01,-1.085500912527534556e+00,-3.878598399778268035e-01,-3.274117991259743454e-01,-7.338944770433655229e-01,-3.402666615968569230e-01,-6.696521399604898894e-01,-5.396041187470395073e-01,-1.588137057401858010e-01,4.215165344857598750e-01,3.850027431829475266e-01,-2.089334169825778353e+00,1.968941246111254317e-01,6.317676147396964481e-01,2.338966802028226988e-01,-1.422556976063616752e+00,-1.106113957486223098e+00,8.915510981571397875e-02,1.047917858157353943e-01,3.585401440198871525e-01,3.398387235177962595e-01,2.182218157063724462e-01,3.277744532072792705e-01,2.145225987138433543e-01,3.945359237601041569e-01,3.421836118066330368e-01,3.643940683448601559e-01,4.745387707876382866e-01,-3.047718488930092895e-01,-3.265968849078898506e-01,-3.769902024573865695e-01,1.359148853979028848e+00,-5.019640829143855454e-01,-1.120731226407736814e-01,9.746204464438633641e-01,5.274927966137571422e-01,3.436738164047408173e-01,-2.093374643817011993e-01,2.306582875387971215e-02,-8.755535352891287426e-02,-2.530751842364838966e-01,-2.469053934363931724e-01,-7.361832639083226715e-01,-4.640122979661665537e-01,-1.808913160917708096e-01,2.185055790226356764e-01,8.710802022119362720e-02,4.475345873743814540e-01,3.838871470833998267e-01,4.030880224160044989e-01,9.345379326868463732e-02,9.062397874988795121e-02,-8.603287786789082237e-02,-9.156815116760433360e-02,2.220953475306459424e-01,-2.942961842833344832e-01,-5.562492048073232331e-02,1.586008448906532919e-01,-5.274341984984842746e-02,-3.249895399038140176e-01,2.604607859459930341e-01,-8.048260654331589325e-01,-9.268057959397654200e-01,-6.838947520463993512e-02,-3.259209032528243011e-01,-3.139040712176088821e-01,-5.209412247917237782e-01,9.947495660608829393e-02,5.898686077396381178e-01,1.653534665485766331e-01,2.321113165368642317e-01,1.053231301193982734e-02,-4.376580149759727589e-02,-2.306175635485757380e-01,2.681025496162866006e-01,-2.091266761971889709e-01,-1.670450387090684219e-01,-2.319565475975560870e-02,-4.810455282207690836e-02,-4.219333199425837067e-01,3.250068982524353389e-01,-6.323230677697356805e-01,-4.855140091538205915e-01,-4.243765890003041719e-01,-1.004584216652034678e-01,-4.630322070112997679e-01,-2.793529290946777377e-01,-1.219905524518981876e-01,-1.276047397376654624e+00,-1.218939948368946036e+00,-1.199223821310407834e+00,8.471034014143151714e-01,-7.710454676792398709e-01,-1.197443865600220425e+00,5.442946493906768435e-01,2.949433081545133062e-01,1.314153738167499752e-01,-9.065149469181188469e-01,-7.839876806403349718e-01,-6.629293842559933481e-01,-1.087009250689815687e+00,-9.606259895661414250e-01,-1.487267009981799282e+00,-5.356875592500517369e-01,-1.039468035854558936e+00,-7.773265692504545132e-01,-1.113045091888298588e+00,-7.185207800046805593e-01,-1.311978045060444575e-01,4.264391415166706167e-01,4.147335160162079482e-01,1.381594158671460848e+00,-2.744873836415429036e-01,-3.321860743898420454e-01,1.127317322186198290e+00,9.748413538800211331e-01,8.000345249576632511e-01,-6.863440217671579191e-02,-3.656422334400533103e-02,-7.086614820975360995e-01,3.905636930048861921e-01,-5.709170546265782686e-01,-1.076808776484289076e+00,-4.312253790022312350e-01,9.344083373291706129e-02,-3.731789608770509359e-01,-1.291188486068445274e-01,4.993939320172152696e-01,7.920410304884846209e-01,6.432135165959977918e-01,5.171446493848242953e-01,4.203125803820755846e-01,3.076514447036459571e-02,-1.361075508169188875e-01,4.583046505422828654e-01,-4.178554647514415993e-02,1.677520614389066411e-01,4.817620701703594077e-02,4.461743889861849444e-01,-8.277086777227244951e-01,4.801763328466894243e-01,-6.052696721083008491e-01,-9.149375870633694730e-01,-4.191437896314803568e-01,3.085649981400645503e-01,-4.347999330829833142e-01,1.236839618966349870e-02,4.145211359249016403e-01,6.136795579254163968e-01,-9.553781232814737567e-01,-1.030360870002002827e+00,-6.363747586209443918e-01,-5.741504505576192630e-01,-1.665572224272758306e-01,-2.844670471535141743e-01,-1.077416763604686079e+00,-9.758077940611468160e-01,-5.315305659719015141e-01,-8.438929260346192951e-01,1.913841665596109076e-01,-9.878166034582388511e-01,-7.813582915545276286e-01,1.090293693534319042e+00,-2.588847277930821089e-02,-1.107215651556599401e+00,-1.778974883699029619e-01,-5.939270065883986982e-01,-1.236522980405302841e+00,7.924565003742914948e-01,-8.892320616422053625e-01,-9.444947048344455309e-01,-2.859926356639996836e+00,1.241310642601863024e-02,-2.050217282220644144e+00,-4.541398794684985973e-01,-1.496929586007869961e+00,-1.237297393998983308e+00,3.422355341929659844e-01,-2.684219028428053502e-02,-7.208976862290141785e-01,-8.398609690037603936e-01,-1.729524715475505348e+00,-2.610711332210132074e+00,3.248600594556269039e-01,-2.065553265360231094e+00,-1.724182949712168345e+00,-2.151388955667828284e+00,6.032650388654504647e-01,-1.219097994994950085e+00,1.350698596366480375e+00,1.691014664331062178e+00,1.745424457580677879e+00,5.716011756184022907e-01,-4.025743478832548128e+00,7.845023108244052468e-01,2.015398433589580929e+00,1.481362557492711396e+00,5.592486222666048779e-01,1.075557993484556496e+00,-3.559702324610604762e+00,1.519337305547046713e+00,8.403158754056233581e-02,-6.557729026440346054e+00,-3.109446863028132446e-01,9.890979985268792962e-01,-3.140626645736278810e+00,-1.180985518103264909e+00,1.362354005042694549e+00,4.749410882664131250e-01,2.538954678868325376e-01,3.293014244029978665e-01,3.605510335349528250e-01,4.600143757838558861e-02,-7.513283770661351169e-02,4.457493845326941928e-01,-2.154833706999012208e-02,9.937545695806906942e-02,3.977496197855228365e-03,-1.156197815153258424e-01,-3.544184477778007936e-01,1.646392650911720490e-01,-5.255763610019053012e-01,-9.866468346271964895e-01,2.440189411092361267e-03,-2.189987500032532786e-01,-3.685512826007946718e-01,-5.696261833336960789e-01,1.487378680573793639e-02,2.471720935444324807e-01,1.105656374766933597e-01,-2.327142311568470290e-01,2.674015690548994795e-01,-1.376680642959168255e-01,-4.439151693360795514e-01,1.712607787873912102e-01,-1.794799211454717880e-01,-2.472682809709638579e-02,-3.389918779444491825e-01,-3.824090493619222708e-01,-4.324939013210211680e-01,-1.770388146296492937e-01,-9.970115645036904395e-01,-7.353871478130774575e-01,-3.290732630437918083e-01,-7.199062955605347591e-01,-6.281617646271075994e-01,-8.651023389826918431e-01,-1.100711843611381496e-01,6.381035682131422915e-01,6.734729984145795267e-01,4.154549729655901413e-01,2.101851527050495883e-01,1.057469324387023263e-01,1.204968922250544694e-01,4.233222468332569211e-01,-1.711938131805679220e-01,3.565803920011145073e-02,1.052143544207530673e-01,9.432173901290129281e-02,-1.939655936065667607e-01,4.001369143805054152e-01,-4.213020331532336127e-01,-4.338338554706616668e-01,-8.277696878622914367e-02,1.450864457772757798e-01,-2.589025110130989127e-01,-1.085891520751502554e-01,1.726856313596363823e-01,-3.920337370524911713e-01,-3.586296669907103607e-01,-3.827598762733631643e-01,5.683050244350051905e-01,-5.740546389706611130e-01,-9.757727768054623718e-01,8.126510835858612447e-01,5.446335378804108007e-01,5.209044603236341331e-01,-3.737999309591835684e-01,-5.198065822460605778e-01,-3.776178848937963850e-01,-5.200371178676287398e-01,-1.179391457495715168e+00,-1.177185524608873823e+00,-5.602102394623561521e-01,-9.426168155039258423e-01,-7.646784778604071020e-01,-9.636233528612393462e-01,-1.668560504288438273e-01,-2.495343040621771646e-01,-2.243696513491680034e-01,-1.953059323374825573e-01,1.652682081962828731e+00,-5.202244464583241079e-01,-5.990697960758449847e-01,1.007211202844537912e+00,9.757414049198456230e-01,9.392781553899125502e-01,-3.644110858800168606e-01,-2.358731040819630753e-01,-4.526435636772059845e-01,-1.449356670097132482e-01,-5.414456600189569979e-01,-1.313676225705609379e+00,-4.985294470891604712e-01,-6.649547962105824273e-02,-3.473820889578232984e-01,-2.582585291099496194e-01,1.707375172784144080e-01,-1.490403768570985610e-01,-3.173446162008921601e-01,-4.611166951542221559e-01,1.397942038020302258e-01,-4.694356257811740374e-01,-7.527197540078869320e-01,2.992865672541160094e-01,9.065008099820824616e-02,1.449768438450763919e-01,-3.022949746047315367e-01,-4.489424388772365604e-01,-4.128689825488985332e-01,-1.416678893412868789e-01,-1.096355908104725829e+00,-9.803895524676737860e-01,-3.792751450713462424e-01,-9.314630835394313024e-01,-6.282104625269945286e-01,-1.053272736813616994e+00,-2.623324205607546200e-01,-2.896324619722190907e-01,1.217056261594608779e+00,1.689134797377259689e+00,2.128721254841407617e+00,1.448437327158144383e-01,9.645975469859661144e-01,1.654424336209935342e+00,1.412940314587009638e+00,1.041301940965043249e+00,3.324179991983349236e-01,1.165766352120993332e+00,-2.209343046881603989e+00,1.731270393701273225e+00,2.139770500273006082e-01,-2.139968557727437659e+00,-1.364023166124456621e+00,1.508280800068512617e+00,-7.375470933387614503e-01,9.405259257071784118e-01,1.485584214525447422e+00,3.802885194624397447e-01,-1.218000621576809939e-01,-3.428611055394529261e-01,-1.194928550408124596e-01,-4.015855454581531703e-01,-4.863844755126157104e-01,7.109524326782706849e-02,-2.652778930920758893e-01,-4.642167623410479727e-01,-2.121872371427538373e-01,-4.182869760633118883e-01,-3.374378201237488439e-01,-5.885645859563370941e-02,-1.046614553750878418e+00,-6.115856783419508780e-01,-2.976657541603111579e-01,-7.468738816893810695e-01,-3.728375036004794585e-01,-7.352706625660129225e-01,-1.113032082894482022e-01,-6.170724436184790163e-01,-5.448728783904773776e-01,-5.124629601486868635e-01,1.386240827861981328e+00,-5.089730771120323238e-01,-6.280615716080270028e-01,1.027046713899982366e+00,9.350412111357918610e-01,6.956747996515368904e-01,-6.062131361882472369e-01,-3.622594828748236240e-01,-5.476255820273788766e-01,-5.992652506794058365e-01,-6.886344795619829817e-01,-1.207008854965303302e+00,-8.403395177870807142e-01,-4.907085861602795140e-01,-3.566591982126599003e-01,-4.513546814367101478e-01,1.620998938462711036e-01,-5.096543352119530246e-01,5.997008047358638461e-01,2.302045212065184643e-01,-8.711930680249554415e-01,2.995935971840672507e-01,2.402823761641414979e-01,-3.656317698512713266e-01,-5.145313437415406366e-01,-4.399841326731374624e-01,6.656437081504416042e-01,4.015745857546924036e-01,6.693312231889481101e-01,5.476450606612610628e-01,1.813122132270596557e-02,6.007717831926986385e-01,8.004502405085096584e-01,9.552889080440214731e-02,1.775716898349548045e-01,8.226887024599051357e-02,8.851268259622614432e-01
0.000000000000000000e+00,0.000000000000000000e+00,0.000000000000000000e+00,0.000000000000000000e+00,0.000000000000000000e+00,0.000000000000000000e+00,0.000000000000000000e+00,-2.242551594906495027e-01,3.510129723614845987e-01,-1.579923383230243950e+00,-5.445822905760607791e-01,-3.908891576893344100e-01,-4.682311477409773492e-01,-4.898196342005554094e-01,-1.646658734143404135e-01,-5.416281504055006080e-01,6.567334148621228884e-01,-1.118274669358277906e-01,-4.633124722749922264e-01,-5.532331587884564694e-01,-4.416992941333819922e-01,-6.202515816726962283e-01,-1.065222625087099695e-01,-4.421092840944461644e-01,4.037465135237077174e-01,-4.320264480244482286e-01,-4.093923087376535319e-01,7.906998759153787137e-01,-4.272275123614541759e-01,-3.729531827217867912e-01,-1.454207381856621462e-01,-5.290054273333861801e-01,-4.441113146230245001e-01,1.588227379333065625e-01,-1.670101531190460453e-01,-1.181645900006313282e-01,-2.101502393480244035e-01,-3.267812354656224327e-01,-6.733964603177614583e-01,-4.706574807018462647e-01,-1.421365059912551132e+00,-2.290176815848307124e-01,-4.633400424417634111e-01,-1.267266011727507635e+00,-6.055667840695994064e-01,-1.055507492637096867e+00,-1.650461522337821341e-01,-8.451522150605461636e-02
